svm_type c_svc
kernel_type rbf
gamma 0.01
nr_class 50
total_sv 50
rho 0 0 0 0 0 0 0 0 0 0 0 0 0 0 0 0 0 0 0 0 0 0 0 0 0 0 0 0 0 0 0 0 0 0 0 0 0 0 0 0 0 0 0 0 0 0 0 0 0 0 0 0 0 0 0 0 0 0 0 0 0 0 0 0 0 0 0 0 0 0 0 0 0 0 0 0 0 0 0 0 0 0 0 0 0 0 0 0 0 0 0 0 0 0 0 0 0 0 0 0 0 0 0 0 0 0 0 0 0 0 0 0 0 0 0 0 0 0 0 0 0 0 0 0 0 0 0 0 0 0 0 0 0 0 0 0 0 0 0 0 0 0 0 0 0 0 0 0 0 0 0 0 0 0 0 0 0 0 0 0 0 0 0 0 0 0 0 0 0 0 0 0 0 0 0 0 0 0 0 0 0 0 0 0 0 0 0 0 0 0 0 0 0 0 0 0 0 0 0 0 0 0 0 0 0 0 0 0 0 0 0 0 0 0 0 0 0 0 0 0 0 0 0 0 0 0 0 0 0 0 0 0 0 0 0 0 0 0 0 0 0 0 0 0 0 0 0 0 0 0 0 0 0 0 0 0 0 0 0 0 0 0 0 0 0 0 0 0 0 0 0 0 0 0 0 0 0 0 0 0 0 0 0 0 0 0 0 0 0 0 0 0 0 0 0 0 0 0 0 0 0 0 0 0 0 0 0 0 0 0 0 0 0 0 0 0 0 0 0 0 0 0 0 0 0 0 0 0 0 0 0 0 0 0 0 0 0 0 0 0 0 0 0 0 0 0 0 0 0 0 0 0 0 0 0 0 0 0 0 0 0 0 0 0 0 0 0 0 0 0 0 0 0 0 0 0 0 0 0 0 0 0 0 0 0 0 0 0 0 0 0 0 0 0 0 0 0 0 0 0 0 0 0 0 0 0 0 0 0 0 0 0 0 0 0 0 0 0 0 0 0 0 0 0 0 0 0 0 0 0 0 0 0 0 0 0 0 0 0 0 0 0 0 0 0 0 0 0 0 0 0 0 0 0 0 0 0 0 0 0 0 0 0 0 0 0 0 0 0 0 0 0 0 0 0 0 0 0 0 0 0 0 0 0 0 0 0 0 0 0 0 0 0 0 0 0 0 0 0 0 0 0 0 0 0 0 0 0 0 0 0 0 0 0 0 0 0 0 0 0 0 0 0 0 0 0 0 0 0 0 0 0 0 0 0 0 0 0 0 0 0 0 0 0 0 0 0 0 0 0 0 0 0 0 0 0 0 0 0 0 0 0 0 0 0 0 0 0 0 0 0 0 0 0 0 0 0 0 0 0 0 0 0 0 0 0 0 0 0 0 0 0 0 0 0 0 0 0 0 0 0 0 0 0 0 0 0 0 0 0 0 0 0 0 0 0 0 0 0 0 0 0 0 0 0 0 0 0 0 0 0 0 0 0 0 0 0 0 0 0 0 0 0 0 0 0 0 0 0 0 0 0 0 0 0 0 0 0 0 0 0 0 0 0 0 0 0 0 0 0 0 0 0 0 0 0 0 0 0 0 0 0 0 0 0 0 0 0 0 0 0 0 0 0 0 0 0 0 0 0 0 0 0 0 0 0 0 0 0 0 0 0 0 0 0 0 0 0 0 0 0 0 0 0 0 0 0 0 0 0 0 0 0 0 0 0 0 0 0 0 0 0 0 0 0 0 0 0 0 0 0 0 0 0 0 0 0 0 0 0 0 0 0 0 0 0 0 0 0 0 0 0 0 0 0 0 0 0 0 0 0 0 0 0 0 0 0 0 0 0 0 0 0 0 0 0 0 0 0 0 0 0 0 0 0 0 0 0 0 0 0 0 0 0 0 0 0 0 0 0 0 0 0 0 0 0 0 0 0 0 0 0 0 0 0 0 0 0 0 0 0 0 0 0 0 0 0 0 0 0 0 0 0 0 0 0 0 0 0 0 0 0 0 0 0 0 0 0 0 0 0 0 0 0 0 0 0 0 0 0 0 0 0 0 0 0 0 0 0 0 0 0 0 0 0 0 0 0 0 0 0 0 0 0 0 0 0 0 0 0 0 0 0 0 0 0 0 0 0 0 0 0 0 0 0 0 0 0 0 0 0 0 0 0 0 0 0 0 0 0 0 0 0 0 0 0 0 0 0 0 0 0 0 0 0 0 0 0 0 0 0 0 0 0 0 0 0 0 0 0 0 0 0 0 0 0 0 0 0 0 0 0 0 0 0 0 0 0 0 0 0 0 0 0 0 0 0 0 0 0 0 0 0 0 0 0 0 0 0 0 0 0 0 0 0 0 0 0 0 0 0 0 0 0 0 0 0 0 0 0 0 0 0 0 0 0 0 0 0 0 0 0 0 0 0 0 0 0 0 0 0 0 0 0 0 0 0 0 0 0 0 0 0 0 0 0 0 0 0 0 0 0 0 0 0 0 0 0 0 0 0 0 0 0 0 0 0 0 0 0 0 0 0 0 0 0 0 0 0 0 0 0 0 0 0 0 0 0 0 0 0 0 0 0 0 0 0 0 0 0 0 0 0 0 0 0 0 0 0 0 0 0 0 0 0 0 0 0 0 0 0 0 0 0 0 0 0 0 0 0 0 0 0 0 0 0 0 0 0 0 0 0 0 0 0 0 0 0 0 0 0 0 0 0 0 0 0 0 0 0 0 0 0 0 0 0 0 0 0 0 0 0 0 0 0 0 0 0 0 0 0 0 0 0 0 0 0 0 0 0 0 0 0 0 0 0 0 0 0 0 0 0 0 0 0
label 1 4 24832 24932 24935 24942 25088 25191 25344 25600 25703 25856 26112 26624 26880 27136 27392 27648 27904 28007 28160 28263 28274 28275 28276 28280 28282 28416 28672 28928 29184 29287 29440 29696 29799 29952 30052 30055 30058 30060 30070 30074 30208 30308 30311 30318 30464 30976 31079 31232
nr_sv 1 1 1 1 1 1 1 1 1 1 1 1 1 1 1 1 1 1 1 1 1 1 1 1 1 1 1 1 1 1 1 1 1 1 1 1 1 1 1 1 1 1 1 1 1 1 1 1 1 1
SV
1 1 1 1 1 1 1 1 1 1 1 1 1 1 1 1 1 1 1 1 1 1 1 1 1 1 1 1 1 1 1 1 1 1 1 1 1 1 1 1 1 1 1 1 1 1 1 1 1 2:-1 3:-0.812527 4:-0.791009 5:-0.681159 6:-0.955556 7:-0.718553 8:-1 9:-0.361305 10:-0.736132 11:-0.529412 12:1 13:-0.948302 14:-0.384615 15:-0.66835 16:-0.25054 17:-1 18:-0.254836 19:-0.475557 20:1 21:-0.709918 22:-0.958446 23:-0.0882517 24:0.078964 25:0.686354 26:-0.704142 27:-0.626155 28:-0.625 29:0.297144 30:-0.998997 31:0.808996 32:-1 33:-0.558603 34:0.534965 35:-0.568 36:-0.990711 37:-1 38:-1 39:-0.999895 40:-1 41:-1 42:-1 43:-0.699736 44:-0.944828 45:-0.705722 46:-0.930297 47:-0.83611 48:-0.99508 49:-1 50:-0.541502 51:-1 53:-1 54:-1 55:-1 56:-1 57:-1 58:-1 59:-1 60:-1 61:-1 62:-1 63:-1 64:-1 65:-1 66:-1 67:-1 68:-1 69:-1 70:-1 71:-1 72:-1 73:-1 74:-1 75:-1 76:-1 77:-1 78:-1 79:-1 80:-1 81:-1 82:-1 83:-1 84:-1 85:-1 86:-1 87:-1 88:-1 89:-1 90:-1 91:-1 92:-1 93:-1 94:-1 95:-1 96:-1 97:-1 98:-1 99:-1 100:-1 
-1 1 1 1 1 1 1 1 1 1 1 1 1 1 1 1 1 1 1 1 1 1 1 1 1 1 1 1 1 1 1 1 1 1 1 1 1 1 1 1 1 1 1 1 1 1 1 1 1 2:-1 3:-1 4:-1 5:-1 6:-1 7:-1 8:-1 9:-1 10:-1 11:-1 12:-1 13:-1 14:-1 15:-1 16:-1 17:-1 18:-1 19:-1 20:-1 21:-1 22:-1 23:-1 24:-1 25:-1 26:-1 27:-1 28:-1 29:-1 30:-1 31:-1 32:-1 33:-1 34:-1 35:-1 36:-1 37:-1 38:-1 39:-1 40:-1 41:-1 42:-1 43:-1 44:-1 45:-1 46:-1 47:-1 48:-1 49:-1 50:-1 51:-1 53:-0.968557 54:-1 55:-0.88785 56:-0.946182 57:-0.998924 58:1 59:-0.999694 60:-0.999663 61:-1 62:-1 63:-0.991322 64:-1 65:-0.968923 66:-0.983725 67:-0.993631 68:-0.969764 69:-0.97318 70:-1 71:-0.947914 72:-0.942623 73:-0.758939 74:-0.985185 75:-0.991944 76:-1 77:-0.992678 78:-0.882353 79:-0.999322 80:-0.976049 81:-0.994357 82:-1 83:-0.978261 84:-0.960664 85:-0.89781 86:-0.99271 87:-1 88:-1 89:-0.998755 90:-0.998477 91:-1 92:-0.991952 93:-0.961527 94:-1 95:-0.977055 96:-0.966921 97:1 98:-0.971693 99:-1 100:-0.920792 
-1 -1 1 1 1 1 1 1 1 1 1 1 1 1 1 1 1 1 1 1 1 1 1 1 1 1 1 1 1 1 1 1 1 1 1 1 1 1 1 1 1 1 1 1 1 1 1 1 1 2:-0.992502 3:-0.759005 4:-0.990279 5:-0.826087 6:-0.667974 7:-0.928777 8:-1 9:-0.893393 10:-0.95275 11:-0.882353 12:-1 13:-0.978713 14:-1 15:-0.978114 16:-0.913607 17:-0.990476 18:-0.789739 19:-0.835642 20:-1 21:-0.487876 22:-0.748871 23:-0.985245 24:-0.961781 25:-0.995927 26:-0.976331 27:-0.985785 28:-1 29:-0.926796 30:-0.976464 31:-0.975201 32:-1 33:-0.957606 34:-0.980332 35:-0.936 36:-0.858802 37:-0.739583 38:-0.981735 39:-0.199201 40:-0.96662 41:1 42:-0.982737 43:-0.946722 44:-0.958621 45:-0.940054 46:-0.641347 47:-0.789544 48:-0.121771 49:-1 50:-0.73913 51:-0.810996 53:-0.848601 54:-0.973732 55:-0.813084 56:-0.985455 57:-0.964849 58:1 59:-0.694593 60:-0.583448 61:0.333333 62:-1 63:-0.938251 64:-0.846154 65:-0.993785 66:-0.929264 67:-0.828025 68:-0.952065 69:-0.886608 70:-0.333333 71:-0.866504 72:-0.905152 73:-0.967416 74:-0.943627 75:-0.967774 76:-0.917647 77:-0.964435 78:-0.764706 79:-0.773783 80:-0.676037 81:-0.763003 82:-1 83:-0.871377 84:-0.911276 85:-0.970803 86:-0.743621 87:0.438424 88:-0.368421 89:-0.726027 90:-0.236101 91:-0.977815 92:-0.444668 93:-0.597637 94:-0.95098 95:-0.778203 96:-0.963891 97:-0.878825 98:-1 99:-1 100:-0.768977 
-1 -1 -1 1 1 1 1 1 1 1 1 1 1 1 1 1 1 1 1 1 1 1 1 1 1 1 1 1 1 1 1 1 1 1 1 1 1 1 1 1 1 1 1 1 1 1 1 1 1 2:-1 3:-0.97917 4:-0.957473 5:-1 6:-1 7:-0.998851 8:-1 9:-0.999764 10:-0.987389 11:-1 12:-1 13:-0.99924 14:-1 15:-0.991582 16:-0.99784 17:-1 18:-0.96804 19:-0.999266 20:-1 21:-0.99986 22:-1 23:-1 24:-1 25:-1 26:-1 27:-1 28:-1 29:-0.969333 30:-1 31:-0.998681 32:-1 33:-1 34:-0.999563 35:-0.984 36:-1 37:-1 38:-1 39:-1 40:-1 41:-1 42:-1 43:-0.685268 44:-0.931034 45:-0.885559 46:-0.999683 47:-0.998896 48:-1 49:-1 50:-1 51:-0.949832 53:-0.998546 54:-0.987231 55:-1 56:-0.992727 57:-0.999641 58:-1 59:-0.944249 60:-0.968326 61:-1 62:-1 63:-0.951936 64:-1 65:-0.996547 66:-0.973709 67:-0.929936 68:-0.983038 69:-0.998267 70:-1 71:-0.956324 72:-0.984778 73:-0.980969 74:-0.980375 75:-0.979859 76:-0.988235 77:-0.99477 78:-1 79:-0.969646 80:-0.988403 81:-0.952159 82:-1 83:-0.983696 84:-0.957605 85:-0.970803 86:-0.990279 87:-1 88:-0.978947 89:-0.996484 90:-0.984006 91:-0.990017 92:-0.983903 93:-0.950469 94:-0.926471 95:-0.996176 96:-0.986364 97:-0.928664 98:-1 99:-1 100:-1 
-1 -1 -1 -1 1 1 1 1 1 1 1 1 1 1 1 1 1 1 1 1 1 1 1 1 1 1 1 1 1 1 1 1 1 1 1 1 1 1 1 1 1 1 1 1 1 1 1 1 1 2:-0.99974 3:-0.997107 4:-1 5:-0.971014 6:-1 7:-0.998851 8:1 9:-0.997636 10:-0.998723 11:-1 12:-1 13:-0.999493 14:-1 15:-1 16:-1 17:-1 18:-0.998318 19:-0.999266 20:-1 21:-0.997533 22:-0.971093 23:-0.999443 24:-0.999684 25:-1 26:-1 27:-1 28:-1 29:-0.999505 30:-1 31:-0.999472 32:-1 33:-1 34:-1 35:-1 36:-1 37:-1 38:-1 39:-0.998423 40:-1 41:-0.998229 42:-1 43:-0.996728 44:-1 45:-0.961853 46:-0.999842 47:-0.996525 48:-0.99262 49:-1 50:-1 51:-0.996792 53:-0.998909 54:-1 55:-0.981308 56:-1 57:-0.999641 58:-1 59:-0.998162 60:-0.997372 61:-0.933333 62:-1 63:-0.998999 64:-1 65:-0.999309 66:-1 67:-0.993631 68:-0.999263 69:-0.998905 70:-1 71:-0.998799 72:-0.985948 73:-1 74:-0.999615 75:-1 76:-1 77:-1 78:-1 79:-0.999491 80:-0.998235 81:-0.996811 82:-1 83:-1 84:-0.998689 85:-1 86:-0.990279 87:-1 88:-1 89:-0.999267 90:-0.996192 91:-1 92:-0.991952 93:-0.995984 94:-1 95:-0.977055 96:-1 97:-0.997876 98:-1 99:-1 100:-0.993399 
-1 -1 -1 -1 -1 1 1 1 1 1 1 1 1 1 1 1 1 1 1 1 1 1 1 1 1 1 1 1 1 1 1 1 1 1 1 1 1 1 1 1 1 1 1 1 1 1 1 1 1 2:-0.998396 3:-0.997107 4:-0.993925 5:-1 6:-0.879739 7:-1 8:-1 9:-0.945397 10:-0.981802 11:-1 12:-1 13:-0.990623 14:-1 15:-0.988215 16:-1 17:-1 18:-0.994954 19:-0.997799 20:-1 21:-0.987714 22:-0.98916 23:-0.999443 24:-0.999368 25:-0.997963 26:-1 27:-1 28:-1 29:-0.994312 30:-0.999909 31:-0.998681 32:-1 33:-1 34:-1 35:-0.984 36:-0.983279 37:-1 38:-1 39:-0.984228 40:-1 41:-0.996457 42:-1 43:-0.985073 44:-1 45:-1 46:-0.965307 47:-0.95535 48:-0.98278 49:-1 50:-1 51:-0.995042 53:-0.976917 54:-1 55:-1 56:-0.933091 57:-0.978121 58:-1 59:-0.956502 60:-0.999865 61:-1 62:-1 63:-0.995661 64:-1 65:-1 66:-0.99687 67:-1 68:-0.9941 69:-0.995439 70:-1 71:-0.985777 72:-1 73:-1 74:-0.994613 75:-0.983887 76:-1 77:-0.998954 78:-1 79:-0.992878 80:-0.983865 81:-0.989696 82:-1 83:-0.990942 84:-0.998689 85:-1 86:-0.973269 87:-0.980296 88:-0.957895 89:-0.94396 90:-0.980198 91:-1 92:-0.927565 93:-0.956871 94:-1 95:-0.973231 96:-0.992803 97:-0.996013 98:-1 99:-1 100:-0.973597 
-1 -1 -1 -1 -1 -1 1 1 1 1 1 1 1 1 1 1 1 1 1 1 1 1 1 1 1 1 1 1 1 1 1 1 1 1 1 1 1 1 1 1 1 1 1 1 1 1 1 1 1 2:-0.99987 3:-0.971648 4:-0.998785 5:-0.971014 6:-0.840523 7:-0.83228 8:-1 9:-0.990072 10:-0.997286 11:-1 12:-1 13:-0.980233 14:-1 15:-0.993266 16:-0.943844 17:-1 18:-0.920942 19:-0.987343 20:-1 21:-0.740494 22:-0.965673 23:-0.999165 24:-0.9741 25:-0.98167 26:-0.928994 27:-0.977257 28:-1 29:-0.995796 30:-0.999726 31:-0.993141 32:-1 33:-0.955112 34:-0.996941 35:-1 36:-0.988853 37:-0.996528 38:-1 39:-0.915462 40:-1 41:-0.996457 42:-1 43:-0.993053 44:-1 45:-0.983651 46:-0.873109 47:-0.981133 48:-0.9877 49:-1 50:-0.976285 51:-0.92854 53:-0.988731 54:-0.999635 55:-0.981308 56:-1 57:-0.947633 58:-1 59:-0.910553 60:-0.996024 61:-1 62:-1 63:-0.985648 64:-0.846154 65:-0.998619 66:-0.8241 67:-0.961783 68:-0.996313 69:-0.986955 70:-1 71:-0.96376 72:-0.992974 73:-0.980104 74:-0.953247 75:-0.643505 76:-0.952941 77:-0.967573 78:-1 79:-0.905036 80:-0.902937 81:-0.95633 82:-1 83:-0.943841 84:-0.985577 85:-1 86:-0.930741 87:-0.990148 88:-0.915789 89:-0.916123 90:-0.863671 91:-1 92:-0.919517 93:-0.898667 94:-1 95:-0.946463 96:-0.983082 97:-0.942966 98:-1 99:-1 100:-0.986799 
-1 -1 -1 -1 -1 -1 -1 1 1 1 1 1 1 1 1 1 1 1 1 1 1 1 1 1 1 1 1 1 1 1 1 1 1 1 1 1 1 1 1 1 1 1 1 1 1 1 1 1 1 2:-0.999957 3:-0.999711 4:-1 5:-1 6:-1 7:-1 8:-1 9:-1 10:-1 11:-1 12:-1 13:-1 14:-1 15:-1 16:-1 17:-1 18:-1 19:-1 20:-1 21:-0.999953 22:-1 23:-1 24:-1 25:-1 26:-1 27:-1 28:-1 29:-1 30:-1 31:-1 32:-1 33:-1 34:-1 35:-1 36:-1 37:-1 38:-1 39:-1 40:-1 41:-1 42:-1 43:-1 44:-1 45:-1 46:-0.999842 47:-0.999968 48:-1 49:-1 50:-1 51:-1 53:-1 54:-1 55:-0.981308 56:-1 57:-1 58:-1 59:-1 60:-1 61:-1 62:-1 63:-1 64:-1 65:-1 66:-1 67:-1 68:-1 69:-0.999909 70:-1 71:-1 72:-1 73:-1 74:-1 75:-1 76:-1 77:-1 78:-1 79:-1 80:-0.999748 81:-1 82:-1 83:-1 84:-1 85:-1 86:-1 87:-1 88:-1 89:-1 90:-1 91:-1 92:-1 93:-0.999942 94:-1 95:-1 96:-1 97:-0.999957 98:-1 99:-1 100:-1 
-1 -1 -1 -1 -1 -1 -1 -1 1 1 1 1 1 1 1 1 1 1 1 1 1 1 1 1 1 1 1 1 1 1 1 1 1 1 1 1 1 1 1 1 1 1 1 1 1 1 1 1 1 2:-0.999957 3:-0.711558 4:-0.778858 5:-0.826087 6:-0.628758 7:-0.664561 8:-1 9:-0.975889 10:-0.759438 11:-0.882353 12:-1 13:-0.974658 14:0.384615 15:-0.784512 16:-0.714903 17:-1 18:-0.606392 19:-0.881684 20:-1 21:-0.696142 22:-0.947606 23:-0.912027 24:-0.652874 25:-0.814664 26:-0.822485 27:-0.866382 28:-0.875 29:-0.651045 30:-0.999088 31:-0.700831 32:-1 33:-0.638404 34:-0.872378 35:-0.888 36:-0.983279 37:-1 38:-1 39:-0.99979 40:-1 41:-1 42:-1 43:-0.645137 44:-0.834483 45:-0.760218 46:-0.714851 47:-0.947914 48:-1 49:-1 50:-0.778656 51:-0.2119 53:-0.91803 54:-0.999635 55:-0.813084 56:-0.664 57:-0.984935 58:-1 59:-0.968755 60:-0.993733 61:-1 62:-1 63:-0.955607 64:-1 65:-0.970304 66:-0.87856 67:-0.904459 68:-0.881268 69:-0.989509 70:-1 71:-0.725248 72:-0.92623 73:-0.8688 74:-0.90303 75:-0.856999 76:-0.964706 77:-0.958159 78:-1 79:-0.998474 80:-0.967982 81:-0.923209 82:-1 83:-0.938406 84:-0.954545 85:-0.970803 86:-0.991495 87:-0.990148 88:-1 89:-0.996557 90:-0.993907 91:-0.998891 92:-0.991952 93:-0.878238 94:-1 95:-0.950287 96:-0.728931 97:-0.711363 98:-1 99:-1 100:-0.894389 
-1 -1 -1 -1 -1 -1 -1 -1 -1 1 1 1 1 1 1 1 1 1 1 1 1 1 1 1 1 1 1 1 1 1 1 1 1 1 1 1 1 1 1 1 1 1 1 1 1 1 1 1 1 2:-0.999783 3:0.788225 4:-0.428919 5:0.130435 6:-0.994771 7:-0.932223 8:-1 9:-0.978017 10:-0.354777 12:-1 13:-0.988343 14:-1 15:-0.259259 16:-0.982721 17:-0.997619 18:-0.505467 19:-0.864258 20:1 21:-0.985712 22:-0.965673 23:-0.994154 24:-0.98705 25:-0.991853 26:-0.964497 27:-0.997157 28:-0.5 29:-0.131693 30:-0.998632 31:-0.92191 32:-1 33:-0.98005 34:-0.967657 35:-0.936 36:-0.972132 37:-0.996528 38:-1 39:-0.995689 40:-0.9992 41:-0.658105 42:-1 43:0.703812 44:-0.544828 45:0.956403 46:-0.994614 47:-0.983212 48:-0.98032 49:-1 50:-0.509881 51:-0.517865 53:-0.946201 54:-0.971178 55:-0.850467 56:-0.834182 57:-0.993902 58:-1 59:-0.538367 60:-0.7276 61:-0.933333 62:-1 63:-0.594126 64:-1 65:-0.952348 66:-0.824726 67:-0.0382166 68:-0.865044 69:-0.97017 70:-1 71:-0.593148 72:-0.79274 73:-0.754325 74:-0.865127 75:-0.836858 76:-0.917647 77:-0.961297 78:-0.764706 79:-0.887231 80:-0.846716 81:-0.227184 82:0.333333 83:-0.597826 84:-0.594843 85:-0.313869 86:-0.850547 87:1 88:-0.915789 89:-0.954289 90:-0.734196 91:-0.967831 92:-0.830986 93:-0.709679 94:-0.862745 95:-0.892925 96:-0.853545 97:-0.559114 98:-0.997823 99:-1 100:-0.933993 
-1 -1 -1 -1 -1 -1 -1 -1 -1 -1 1 1 1 1 1 1 1 1 1 1 1 1 1 1 1 1 1 1 1 1 1 1 1 1 1 1 1 1 1 1 1 1 1 1 1 1 1 1 1 2:-1 3:-0.988428 4:-1 5:-0.942029 6:-1 7:-1 8:-1 9:-1 10:-0.999681 11:-1 12:-1 13:-1 14:-1 15:-1 16:-1 17:-1 18:-0.998318 19:-0.998899 20:-1 21:-0.999907 22:-1 23:-1 24:-1 25:-1 26:-1 27:-1 28:-1 29:-0.999258 30:-1 31:-0.999736 32:-1 33:-1 34:-0.997815 35:-1 36:-1 37:-1 38:-1 39:-1 40:-1 41:-1 42:-1 43:-0.996555 44:-1 45:-0.983651 46:-1 47:-0.999968 48:-1 49:-1 50:-1 51:-0.997667 53:-0.999636 54:-1 55:-1 56:-1 57:-1 58:-1 59:-0.999387 60:-0.998854 61:-1 62:-1 63:-0.999332 64:-1 65:-0.997928 66:-1 67:-1 68:-1 69:-1 70:-1 71:-0.998896 72:-0.997658 73:-0.999712 74:-1 75:-1 76:-1 77:-1 78:-1 79:-0.99983 80:-1 81:-0.999509 82:-1 83:-0.998188 84:-1 85:-1 86:-0.998785 87:-1 88:-1 89:-0.999927 90:-0.998477 91:-1 92:-1 93:-0.998894 94:-1 95:-1 96:-1 97:-0.998787 98:-1 99:-1 100:-1 
-1 -1 -1 -1 -1 -1 -1 -1 -1 -1 -1 1 1 1 1 1 1 1 1 1 1 1 1 1 1 1 1 1 1 1 1 1 1 1 1 1 1 1 1 1 1 1 1 1 1 1 1 1 1 2:-1 3:-1 4:-1 5:-1 6:-1 7:-1 8:-1 9:-1 10:-1 11:-1 12:-0.818182 13:-1 14:-1 15:-1 16:-1 17:-1 18:-1 19:-1 20:-1 21:-1 22:-1 23:-1 24:-1 25:-1 26:-1 27:-1 28:-1 29:-1 30:-1 31:-1 32:-1 33:-1 34:-1 35:-1 36:-1 37:-1 38:-1 39:-1 40:-1 41:-0.998229 42:-1 43:-0.999943 44:-1 45:-1 46:-1 47:-0.999253 48:-1 49:-1 50:-1 51:-0.996792 53:-1 54:-1 55:-1 56:-1 57:-1 58:-1 59:-1 60:-1 61:-1 62:-0.913043 63:-1 64:-1 65:-1 66:-1 67:-1 68:-1 69:-1 70:-1 71:-0.999968 72:-1 73:-1 74:-1 75:-1 76:-1 77:-1 78:-0.882353 79:-1 80:-1 81:-1 82:-1 83:-0.998188 84:-1 85:-1 86:-1 87:-1 88:-1 89:-1 90:-1 91:-1 92:-1 93:-1 94:-1 95:-1 96:-1 97:-0.999523 98:-1 99:-1 100:-1 
-1 -1 -1 -1 -1 -1 -1 -1 -1 -1 -1 -1 1 1 1 1 1 1 1 1 1 1 1 1 1 1 1 1 1 1 1 1 1 1 1 1 1 1 1 1 1 1 1 1 1 1 1 1 1 2:-0.998873 3:-0.946478 4:-0.82503 5:-0.913043 6:-0.966013 7:-0.950603 8:-1 9:-0.968562 10:-0.80589 11:-0.882353 12:-1 13:-0.980233 14:-1 15:-0.867003 16:-0.965443 17:-0.997619 18:-0.863751 19:-0.876731 20:-1 21:-0.941639 22:-0.954833 23:-0.993318 24:-0.962097 25:-0.983707 26:-0.988166 27:-0.991471 28:-0.75 29:-0.897613 30:-0.996807 31:-0.946445 32:-1 33:-0.952618 34:-0.993007 35:-1 36:-0.93869 37:-1 38:-1 39:-0.805268 40:-0.9996 41:-0.996457 42:-0.998767 43:-0.756746 44:-0.834483 45:-0.787466 46:-0.973069 47:-0.805423 48:-0.948339 49:-1 50:-0.849802 51:-0.940499 53:-0.984733 54:-0.998906 55:-0.962617 56:-0.946182 57:-0.972023 58:-1 59:-0.969367 60:-0.9969 61:-1 62:-1 63:-0.973965 64:-1 65:-0.969613 66:-0.847261 67:-0.993631 68:-0.929941 69:-0.978471 70:-1 71:-0.743725 72:-0.908665 73:-0.989043 74:-0.913805 75:-0.943605 76:-0.952941 77:-0.971757 78:-1 79:-0.930812 80:-0.696458 81:-0.957066 82:-1 83:-0.961957 84:-0.562063 85:-0.927007 86:-0.99271 87:-0.990148 88:-0.894737 89:-0.987473 90:-0.97639 91:-1 92:-0.971831 93:-0.857692 94:-0.995098 95:-0.969407 96:-0.859857 97:-0.962079 98:-0.998911 99:-1 100:-0.966997 
-1 -1 -1 -1 -1 -1 -1 -1 -1 -1 -1 -1 -1 1 1 1 1 1 1 1 1 1 1 1 1 1 1 1 1 1 1 1 1 1 1 1 1 1 1 1 1 1 1 1 1 1 1 1 1 2:-1 3:-0.999421 4:-1 5:-1 6:-1 7:-0.997702 8:-1 9:-1 10:-1 11:-1 12:-1 13:-1 14:-1 15:-1 16:-0.993521 17:-1 18:-0.998318 19:-0.999633 20:-1 21:-0.99879 22:-1 23:-1 24:-0.999684 25:-0.997963 26:-1 27:-0.998579 28:-1 29:-1 30:-1 31:-1 32:-1 33:-1 34:-1 35:-1 36:-1 37:-1 38:-1 39:-1 40:-1 41:-1 42:-1 43:-0.999943 44:-1 45:-1 46:-0.999208 47:-1 48:-1 49:-1 50:-1 51:-0.998833 53:-1 54:-1 55:-1 56:-1 57:-1 58:-1 59:-0.997243 60:-1 61:-1 62:-1 63:-1 64:-1 65:-1 66:-1 67:-1 68:-1 69:-0.999909 70:-1 71:-0.999935 72:-1 73:-1 74:-0.999808 75:-1 76:-1 77:-0.998954 78:-1 79:-0.999661 80:-0.999496 81:-0.999264 82:-1 83:-1 84:-1 85:-1 86:-0.998785 87:-1 88:-1 89:-0.999707 90:-1 91:-1 92:-1 93:-0.999243 94:-1 95:-1 96:-1 97:-0.999783 98:-1 99:-1 100:-1 
-1 -1 -1 -1 -1 -1 -1 -1 -1 -1 -1 -1 -1 -1 1 1 1 1 1 1 1 1 1 1 1 1 1 1 1 1 1 1 1 1 1 1 1 1 1 1 1 1 1 1 1 1 1 1 1 2:-0.99805 3:-0.997396 4:-0.993925 5:-0.971014 6:-1 7:-0.997702 8:-1 9:-0.989836 10:-0.988986 11:-0.823529 12:-1 13:-0.988849 14:-1 15:-0.969697 16:-0.99784 17:-0.995238 18:-0.986543 19:-0.997432 20:1 21:-0.99651 22:-0.98916 23:-0.998886 24:-0.997473 25:-1 26:-1 27:-0.998579 28:-1 29:-0.984914 30:-0.999544 31:-0.997889 32:-1 33:-0.995012 34:-0.998689 35:-0.984 36:-0.970274 37:-0.996528 38:-1 39:-0.898849 40:-0.9994 41:-0.43667 42:-0.998767 43:-0.982834 44:-1 45:-0.961853 46:-0.998733 47:-0.905959 48:-0.923739 49:-1 50:-0.976285 51:-0.94254 53:-0.997637 54:-0.998176 55:-1 56:-0.989818 57:-0.998565 58:-1 59:-0.96079 60:-0.970347 61:-1 62:-1 63:-0.973632 64:-1 65:-0.987569 66:-0.99374 67:-0.866242 68:-0.99115 69:-0.994527 70:-1 71:-0.972528 72:-0.989461 73:-0.983564 74:-0.993651 75:-0.993958 76:-0.988235 77:-0.995816 78:-1 79:-0.975411 80:-0.974285 81:-0.944799 82:-1 83:-0.961957 84:-0.988636 85:-0.985401 86:-0.986634 87:-0.418719 88:-1 89:-0.982712 90:-0.947449 91:-0.988907 92:-0.927565 93:-0.949072 94:-1 95:-0.965583 96:-0.992677 97:-0.948513 98:-1 99:-1 100:-0.993399 
-1 -1 -1 -1 -1 -1 -1 -1 -1 -1 -1 -1 -1 -1 -1 1 1 1 1 1 1 1 1 1 1 1 1 1 1 1 1 1 1 1 1 1 1 1 1 1 1 1 1 1 1 1 1 1 1 2:-0.998873 3:-0.967308 4:-0.948967 5:-1 6:-0.986928 7:-0.677197 8:-1 9:-0.954143 10:-0.955304 11:-1 12:-1 13:-0.938165 14:-1 15:-0.983165 16:0.346652 17:-0.988095 18:-0.949537 19:-0.914519 20:-1 21:-0.851305 22:-0.971093 23:-0.996102 24:-0.960834 25:-0.98778 26:-0.988166 27:-0.972992 28:-1 29:-0.938667 30:-0.999453 31:-0.978367 32:-1 33:-0.890274 34:-0.969843 35:-0.936 36:-0.906177 37:-1 38:-1 39:-0.960149 40:-0.9998 41:-1 42:-1 43:-0.925594 44:-0.862069 45:-0.972752 46:-0.918574 47:-0.96061 48:-0.99754 49:-1 50:-0.98419 51:-0.797579 53:-0.98546 54:-0.99927 55:-1 56:-1 57:-0.981349 58:-1 59:-0.91913 60:-0.998922 61:-1 62:-1 63:-0.989319 64:-0.538462 65:-0.998619 66:-0.219405 67:-1 68:-0.988938 69:-0.992611 70:-1 71:-0.962202 72:-0.977752 73:-0.997116 74:-0.891294 75:-0.800604 76:-1 77:-0.970711 78:-1 79:-0.824317 80:-0.930417 81:-0.969087 82:-1 83:-0.967391 84:-0.955857 85:-0.985401 86:-0.981774 87:-1 88:-0.915789 89:-0.964105 90:-0.907083 91:-1 92:-0.943662 93:-0.892207 94:-1 95:-0.862333 96:-0.99495 97:-0.922597 98:-1 99:-1 100:-1 
-1 -1 -1 -1 -1 -1 -1 -1 -1 -1 -1 -1 -1 -1 -1 -1 1 1 1 1 1 1 1 1 1 1 1 1 1 1 1 1 1 1 1 1 1 1 1 1 1 1 1 1 1 1 1 1 1 2:-0.999957 3:-0.992189 4:-0.986634 5:-0.971014 6:-1 7:-0.993107 8:-1 9:-0.996454 10:-0.975896 11:-1 12:-1 13:-0.999747 14:-1 15:-0.964646 16:-1 17:-1 18:-0.983179 19:-0.999083 20:-1 21:-0.998138 22:-0.998193 23:-0.999722 24:-0.999684 25:-1 26:-0.988166 27:-0.998579 28:-1 29:-0.976258 30:-1 31:-0.996307 32:-1 33:-0.975062 34:-0.994755 35:-1 36:-0.997213 37:-1 38:-1 39:-0.990852 40:-1 41:-1 42:-1 43:-0.981973 44:-0.986207 45:-0.99455 46:-0.999683 47:-0.996071 48:-0.99508 49:-1 50:-0.992095 51:-1 53:-0.999273 54:-1 55:-1 56:-1 57:-1 58:-1 59:-1 60:-0.999933 61:-1 62:-1 63:-0.999666 64:-1 65:-0.998619 66:-0.99687 67:-1 68:-1 69:-0.999726 70:-1 71:-0.972723 72:-0.996487 73:-0.999135 74:-0.999038 75:-1 76:-0.764706 77:-0.995816 78:-1 79:-0.99983 80:-1 81:-1 82:-0.333333 83:-1 84:-1 85:-1 86:-1 87:-1 88:-1 89:-1 90:-1 91:-1 92:-1 93:-0.999243 94:-1 95:-0.992352 96:-0.999874 97:-0.997876 98:-1 99:-1 100:-1 
-1 -1 -1 -1 -1 -1 -1 -1 -1 -1 -1 -1 -1 -1 -1 -1 -1 1 1 1 1 1 1 1 1 1 1 1 1 1 1 1 1 1 1 1 1 1 1 1 1 1 1 1 1 1 1 1 1 2:-0.998223 3:-0.981195 4:-0.972053 5:-0.971014 6:-0.979085 7:-0.994256 8:-1 9:-0.961943 10:-0.970788 11:-1 12:-1 13:-0.975925 14:-1 15:-0.979798 16:-0.983801 17:-1 18:-0.957948 19:-0.990278 20:-1 21:-0.971843 22:-0.976513 23:-0.995824 24:-0.994946 25:-0.997963 26:-1 27:-0.998579 28:-1 29:-0.975269 30:-0.999909 31:-0.988392 32:-1 33:-0.98005 34:-0.994318 35:-1 36:-0.943335 37:-0.996528 38:-0.995434 39:-0.905788 40:-0.9994 41:-0.847653 42:-0.998767 43:-0.966644 44:-0.944828 45:-0.961853 46:-0.972277 47:-0.911934 48:-0.943419 49:-1 50:-1 51:-0.870789 53:-0.977281 54:-0.993068 55:-0.981308 56:-0.995636 57:-0.983142 58:-1 59:-0.92832 60:-0.980187 61:-0.966667 62:-1 63:-0.972964 64:-0.923077 65:-0.994475 66:-0.981221 67:-0.936306 68:-0.981563 69:-0.993797 70:-1 71:-0.971034 72:-0.982436 73:-0.987024 74:-0.973449 75:-0.981873 76:-1 77:-0.98954 78:-1 79:-0.948279 80:-0.964957 81:-0.950442 82:-1 83:-0.952899 84:-0.979021 85:-0.927007 86:-0.979344 87:-0.891626 88:-0.978947 89:-0.973775 90:-0.937548 91:-0.991126 92:-0.967807 93:-0.937198 94:-0.995098 95:-0.984704 96:-0.991036 97:-0.94847 98:-1 99:-1 100:-0.986799 
-1 -1 -1 -1 -1 -1 -1 -1 -1 -1 -1 -1 -1 -1 -1 -1 -1 -1 1 1 1 1 1 1 1 1 1 1 1 1 1 1 1 1 1 1 1 1 1 1 1 1 1 1 1 1 1 1 1 2:-0.987258 3:-0.640388 4:-0.976914 5:-0.652174 6:-0.869281 7:-0.835727 8:1 9:-0.972816 10:-0.947801 11:-1 12:-1 13:-0.940193 14:-0.846154 15:-0.89899 16:-0.912527 17:-0.992857 18:-0.885618 19:-0.526736 20:-1 21:-0.676083 22:-0.490515 23:-0.992483 24:-0.92988 25:-1 26:-0.928994 27:-0.923241 28:-0.875 29:-0.94485 30:1 31:-0.986809 32:-1 33:-0.94015 34:-0.969843 35:-0.792 36:-0.99164 37:-1 38:-1 39:-0.947111 40:-0.9998 41:-0.971656 42:-1 43:-0.888564 44:-1 45:-0.847411 46:-0.941545 47:-0.901283 48:-0.97048 49:-1 50:-0.770751 51:-0.166108 53:-0.83715 54:-0.998541 55:-0.925234 56:-0.982545 57:-0.975251 58:-1 59:-0.80242 60:-0.95013 61:-0.8 62:-1 63:-0.775701 64:-0.846154 65:-0.990331 66:-0.708294 67:-0.968153 68:-0.960914 69:-0.764641 70:-1 71:-0.861503 72:-0.891101 73:-0.929931 74:-0.838576 75:-0.92145 76:-0.882353 77:-0.948745 78:-0.529412 79:-0.648635 80:-0.823774 81:-0.525515 82:-1 83:-0.724638 84:-0.792832 85:-0.89781 86:-0.529769 87:-0.901478 88:0.810526 89:-0.781115 90:0.479056 91:-0.993344 92:-0.376258 93:-0.365404 94:-1 95:-0.671128 96:-0.978537 97:-0.811259 98:-1 99:-1 100:-0.729373 
-1 -1 -1 -1 -1 -1 -1 -1 -1 -1 -1 -1 -1 -1 -1 -1 -1 -1 -1 1 1 1 1 1 1 1 1 1 1 1 1 1 1 1 1 1 1 1 1 1 1 1 1 1 1 1 1 1 1 2:-1 3:-0.999711 4:-1 5:-1 6:-1 7:-1 8:-1 9:-1 10:-1 11:-1 12:-1 13:-1 14:-1 15:-1 16:-1 17:-1 18:-1 19:-1 20:-1 21:-0.999907 22:-1 23:-1 24:-1 25:-1 26:-1 27:-1 28:-1 29:-1 30:-1 31:-1 32:-1 33:-1 34:-1 35:-1 36:-1 37:-1 38:-1 39:-1 40:-1 41:-1 42:-1 43:-0.999828 44:-1 45:-1 46:-1 47:-1 48:-1 49:-1 50:-1 51:-0.999708 53:-1 54:-1 55:-1 56:-1 57:-1 58:-1 59:-1 60:-0.999933 61:-1 62:-1 63:-1 64:-1 65:-0.999309 66:-1 67:-1 68:-1 69:-1 70:-1 71:-1 72:-1 73:-1 74:-1 75:-1 76:-1 77:-1 78:-1 79:-0.99983 80:-1 81:-1 82:-1 83:-1 84:-1 85:-1 86:-1 87:-1 88:-1 89:-1 90:-1 91:-1 92:-1 93:-0.999942 94:-1 95:-1 96:-1 97:-0.999957 98:-1 99:-1 100:-1 
-1 -1 -1 -1 -1 -1 -1 -1 -1 -1 -1 -1 -1 -1 -1 -1 -1 -1 -1 -1 1 1 1 1 1 1 1 1 1 1 1 1 1 1 1 1 1 1 1 1 1 1 1 1 1 1 1 1 1 2:-0.930485 3:0.189353 4:0.634265 5:0.0724638 6:0.145098 7:0.282022 8:-1 9:1 10:1 11:1 12:-0.818182 13:1 14:-0.692308 15:0.424242 16:0.257019 17:1 18:0.500421 19:-0.217647 20:-1 21:1 22:0.192412 23:0.541759 24:-0.708781 25:-0.773931 26:-0.526627 27:-0.76688 28:0.625 29:0.574379 30:-0.993523 31:-0.603482 32:-0.333333 33:0.0498753 34:-0.398164 35:-0.616 36:1 37:-1 38:-0.995434 39:1 40:-0.9996 41:-0.785651 42:-0.996301 43:1 44:1 45:0.547684 46:1 47:1 48:-0.193112 49:-1 50:1 51:0.817996 53:1 54:-0.998906 55:-0.00934579 56:-0.616 57:1 58:1 59:1 60:-0.979311 61:-0.933333 62:-1 63:-0.581442 64:1 65:-0.948204 66:1 67:-0.745223 68:-0.553835 69:-0.365079 70:0.333333 71:0.395486 72:-0.371194 73:-0.304498 74:1 75:1 76:1 77:1 78:-0.176471 79:1 80:1 81:0.640824 82:-1 83:1 84:0.283217 85:-0.605839 86:1 87:-0.73399 88:1 89:1 90:1 91:-0.995563 92:1 93:1 94:-0.980392 95:0.655832 96:1 97:-0.0476727 98:-0.996734 99:-1 100:0.973597 
-1 -1 -1 -1 -1 -1 -1 -1 -1 -1 -1 -1 -1 -1 -1 -1 -1 -1 -1 -1 -1 1 1 1 1 1 1 1 1 1 1 1 1 1 1 1 1 1 1 1 1 1 1 1 1 1 1 1 1 2:-0.997876 3:-0.976566 4:-0.984204 5:-0.652174 6:-1 7:-0.993107 8:-1 9:-0.985108 10:-0.971746 11:-0.882353 12:-1 13:-0.980233 14:-1 15:-0.984848 16:-0.979482 17:-0.992857 18:-0.974769 19:-0.98294 20:-1 21:-0.975008 22:-0.904246 23:-0.995824 24:-0.95578 25:-0.892057 26:-1 27:-0.985785 28:-0.875 29:-0.963893 30:-0.999635 31:-0.991294 32:-1 33:-0.997506 34:-0.963724 35:-0.968 36:-0.967487 37:-1 38:-1 39:-0.980022 40:-1 41:-1 42:-1 43:-0.95453 44:-0.986207 45:-0.918256 46:-0.993822 47:-0.944536 48:-0.96556 49:-1 50:-0.960474 51:-0.993292 53:-0.974736 54:-1 55:-0.700935 56:-0.991273 57:-0.993185 58:-1 59:-0.991117 60:-0.99872 61:-1 62:-1 63:-0.991656 64:-1 65:-0.995856 66:-0.989984 67:-0.993631 68:-0.990413 69:-0.974275 70:-1 71:-0.978568 72:-0.937939 73:-0.989043 74:-0.986917 75:-0.981873 76:-0.976471 77:-0.993724 78:-1 79:-0.981516 80:-0.981344 81:-0.869971 82:0.333333 83:-0.974638 84:-0.893357 85:-0.927007 86:-0.483597 87:-1 88:-0.936842 89:-0.99663 90:-0.967251 91:-1 92:-0.991952 93:-0.935568 94:-1 95:-0.793499 96:-0.986238 97:-0.987085 98:-1 99:-1 100:-0.986799 
-1 -1 -1 -1 -1 -1 -1 -1 -1 -1 -1 -1 -1 -1 -1 -1 -1 -1 -1 -1 -1 -1 1 1 1 1 1 1 1 1 1 1 1 1 1 1 1 1 1 1 1 1 1 1 1 1 1 1 1 2:-0.963769 3:-0.967308 4:-0.919806 5:-1 6:-1 7:-0.920735 8:-1 9:-0.892448 10:-0.863996 11:-0.941176 12:-1 13:-0.99037 14:-1 15:-0.90404 16:-0.989201 17:-0.992857 18:-0.924306 19:-0.955425 20:-1 21:-0.887746 22:-0.931346 23:-0.880846 24:-0.963361 25:-0.98167 26:-0.988166 27:-0.994314 28:-0.875 29:-0.709905 30:-0.999818 31:-0.967287 32:-1 33:-0.885287 34:-0.729895 35:-0.984 36:-0.601486 37:-0.996528 38:-1 39:-0.931549 40:-1 41:-1 42:-1 43:-0.779079 44:-0.903448 45:1 46:-0.99398 47:-0.774769 48:-0.97786 49:-1 50:-0.889328 51:-0.0447718 53:-0.990367 54:-1 55:-0.962617 56:-0.997091 57:-0.998924 58:-1 59:-0.903201 60:-0.998585 61:-1 62:-1 63:-0.991989 64:-1 65:-0.997238 66:-0.991236 67:-0.993631 68:-0.988938 69:-0.997537 70:-1 71:-0.820166 72:-0.982436 73:-0.876586 74:-0.980568 75:-0.983887 76:-0.988235 77:-0.996862 78:-1 79:-0.858233 80:-0.988403 81:-0.995093 82:-1 83:-0.998188 84:-0.967657 85:-0.970803 86:-1 87:-0.990148 88:-0.873684 89:-0.960223 90:-0.886519 91:-1 92:-0.879276 93:-0.924451 94:-1 95:-0.961759 96:-0.998864 97:-0.688654 98:-1 99:-1 100:-0.993399 
-1 -1 -1 -1 -1 -1 -1 -1 -1 -1 -1 -1 -1 -1 -1 -1 -1 -1 -1 -1 -1 -1 -1 1 1 1 1 1 1 1 1 1 1 1 1 1 1 1 1 1 1 1 1 1 1 1 1 1 1 2:-0.996663 3:-0.915232 4:-0.876063 5:-0.942029 6:-0.926797 7:-0.72085 8:-1 9:-0.880865 10:-0.8881 11:-1 12:-1 13:-0.886467 14:-0.846154 15:-0.944444 16:-0.389849 17:-0.988095 18:-0.767872 19:-0.846097 20:-1 21:-0.516219 22:-0.877145 23:-0.971882 24:-0.47031 25:-0.751527 26:-0.928994 27:-0.154229 28:-1 29:-0.856065 30:-0.999088 31:-0.933518 32:-1 33:-0.413965 34:-0.313811 35:-0.904 36:-0.67673 37:-1 38:-1 39:-0.8284 40:-1 41:-1 42:-1 43:-0.833046 44:-0.903448 45:-0.923706 46:-0.912871 47:-0.912194 48:-0.97786 49:-1 50:-0.944664 51:-0.00364591 53:-0.978008 54:-1 55:-0.981308 56:-0.997091 57:-0.970588 58:-1 59:-0.663348 60:-0.997237 61:-1 62:-1 63:-0.959947 64:-0.923077 65:-0.994475 66:-0.922379 67:-0.993631 68:-0.988201 69:-0.979748 70:-1 71:-0.97006 72:-0.836066 73:-0.966551 74:-0.677345 75:0.637462 76:-1 77:-0.970711 78:-1 79:-0.271155 80:-0.946552 81:-0.827282 82:-1 83:-0.960145 84:-0.854895 85:-0.970803 86:-0.968408 87:-0.980296 88:-0.642105 89:-0.911289 90:-0.623762 91:-1 92:-0.774648 93:-0.708282 94:-1 95:-0.751434 96:-0.995202 97:-0.725579 98:-1 99:-1 100:-0.973597 
-1 -1 -1 -1 -1 -1 -1 -1 -1 -1 -1 -1 -1 -1 -1 -1 -1 -1 -1 -1 -1 -1 -1 -1 1 1 1 1 1 1 1 1 1 1 1 1 1 1 1 1 1 1 1 1 1 1 1 1 1 2:-0.999827 3:-0.995371 4:-0.987849 5:-1 6:-0.979085 7:-0.796669 8:-1 9:-0.983217 10:-0.98707 11:-1 12:-1 13:-0.992904 14:-1 15:-0.994949 16:-0.893089 17:-1 18:-0.984861 19:-0.992846 20:-1 21:-0.953786 22:-0.98374 23:-0.997773 24:-0.743209 25:-0.92668 26:-1 27:-1 28:-1 29:-0.962656 30:-1 31:-0.993932 32:-1 33:-0.992519 34:-0.978147 35:-1 36:-0.98235 37:-1 38:-1 39:-0.988224 40:-1 41:-1 42:-1 43:-0.97738 44:-1 45:-0.99455 46:-0.98796 47:-0.989219 48:-1 49:-1 50:-1 51:-0.758495 53:-0.999636 54:-1 55:-1 56:-0.998545 57:-0.996772 58:-1 59:-0.972124 60:-0.99973 61:-1 62:-1 63:-0.99733 64:-0.923077 65:-1 66:-0.996244 67:-1 68:-0.999263 69:-1 70:-1 71:-0.996396 72:-0.937939 73:-0.997405 74:-0.976527 75:-0.927492 76:-1 77:-0.991632 78:-1 79:-0.875191 80:-0.996218 81:-0.999264 82:-1 83:-1 84:-0.993007 85:-1 86:-0.99757 87:-1 88:-1 89:-0.991356 90:-0.977152 91:-1 92:-0.991952 93:-0.978523 94:-1 95:-0.992352 96:-1 97:-0.957441 98:-1 99:-1 100:-1 
-1 -1 -1 -1 -1 -1 -1 -1 -1 -1 -1 -1 -1 -1 -1 -1 -1 -1 -1 -1 -1 -1 -1 -1 -1 1 1 1 1 1 1 1 1 1 1 1 1 1 1 1 1 1 1 1 1 1 1 1 1 2:-1 3:-0.997975 4:-0.998785 5:-1 6:-1 7:-0.995405 8:-1 9:-0.999291 10:-0.998883 11:-1 12:-1 13:-0.998986 14:-1 15:-0.998316 16:-1 17:-0.952381 18:-1 19:-0.998166 20:-1 21:-0.992088 22:-0.996387 23:-0.999722 24:-1 25:-1 26:-1 27:-0.997157 28:-1 29:-0.998516 30:-0.999453 31:-0.999736 32:-1 33:-0.997506 34:-1 35:-1 36:-0.996284 37:-1 38:-1 39:-0.997582 40:-1 41:-1 42:-1 43:-0.998909 44:-1 45:-1 46:-0.997465 47:-0.995097 48:-1 49:-1 50:-1 51:-0.992708 53:-0.999636 54:-1 55:-1 56:-1 57:-0.997848 58:-1 59:-0.995405 60:-0.999798 61:-1 62:-1 63:-0.999666 64:-1 65:-1 66:-0.999374 67:-0.993631 68:-1 69:-0.999453 70:-1 71:-0.998701 72:-1 73:-0.999712 74:-0.998846 75:-1 76:-1 77:-0.986402 78:-1 79:-0.995082 80:-0.996723 81:-0.999509 82:-1 83:-0.998188 84:-0.997815 85:-1 86:-1 87:-1 88:-1 89:-0.996704 90:-0.993145 91:-1 92:-0.995976 93:-0.996391 94:-1 95:-1 96:-0.999621 97:-0.992676 98:-1 99:-1 100:-1 
-1 -1 -1 -1 -1 -1 -1 -1 -1 -1 -1 -1 -1 -1 -1 -1 -1 -1 -1 -1 -1 -1 -1 -1 -1 -1 1 1 1 1 1 1 1 1 1 1 1 1 1 1 1 1 1 1 1 1 1 1 1 2:-0.999697 3:-0.990163 4:-0.993925 5:-1 6:-0.997386 7:-0.964388 8:-1 9:-0.990545 10:-0.994094 11:-1 12:-1 13:-0.993158 14:-0.846154 15:-0.993266 16:-0.969762 17:-0.990476 18:-0.983179 19:-0.991012 20:-1 21:-0.911016 22:-0.98916 23:-0.999165 24:-0.991156 25:-0.983707 26:-0.846154 27:-0.971571 28:-1 29:-0.993817 30:-0.999818 31:-0.996043 32:-1 33:-0.982544 34:-0.996066 35:-1 36:-0.968416 37:-1 38:-1 39:-0.989485 40:-1 41:-1 42:-1 43:-0.991273 44:-0.986207 45:-0.983651 46:-0.98796 47:-0.966423 48:-1 49:-1 50:-0.98419 51:-0.92329 53:-0.998182 54:-1 55:-1 56:-1 57:-0.994261 58:-1 59:-0.971205 60:-0.999865 61:-1 62:-1 63:-0.997997 64:-0.923077 65:-0.999309 66:-0.988106 67:-0.993631 68:-0.999263 69:-0.995074 70:-1 71:-0.994674 72:-0.98829 73:-0.998847 74:-0.885522 75:-1 76:-0.976471 77:-0.979079 78:-1 79:-0.963371 80:-0.981092 81:-0.993621 82:-1 83:-0.98913 84:-0.989073 85:-0.985401 86:-0.99757 87:-0.980296 88:-0.915789 89:-0.983151 90:-0.965727 91:-1 92:-0.983903 93:-0.975962 94:-1 95:-0.988528 96:-0.999242 97:-0.939022 98:-1 99:-1 100:-1 
-1 -1 -1 -1 -1 -1 -1 -1 -1 -1 -1 -1 -1 -1 -1 -1 -1 -1 -1 -1 -1 -1 -1 -1 -1 -1 -1 1 1 1 1 1 1 1 1 1 1 1 1 1 1 1 1 1 1 1 1 1 1 2:-0.999957 3:-0.999421 4:-1 5:-1 6:-1 7:-1 8:-1 9:-1 10:-0.999681 11:-1 12:-0.818182 13:-1 14:-1 15:-1 16:-1 17:-1 18:-1 19:-0.999266 20:-1 21:-0.999674 22:-1 23:-1 24:-1 25:-1 26:-1 27:-1 28:-0.625 29:-1 30:-1 31:-1 32:-1 33:-1 34:-1 35:-1 36:-1 37:-1 38:-1 39:-0.998949 40:-1 41:-0.9876 42:-0.998767 43:-0.999196 44:-1 45:-1 46:-0.999842 47:-0.999448 48:-1 49:-1 50:-1 51:-0.999125 53:-1 54:-1 55:-1 56:-1 57:-1 58:-1 59:-0.999694 60:-0.99973 61:-1 62:-1 63:-0.999332 64:-1 65:-1 66:-1 67:-1 68:-1 69:-0.999909 70:-1 71:-0.999578 72:-0.998829 73:-0.999712 74:-1 75:-1 76:-1 77:-1 78:-0.647059 79:-0.999491 80:-1 81:-0.999264 82:-1 83:-0.992754 84:-1 85:-1 86:-1 87:-0.970443 88:-1 89:-0.99978 90:-1 91:-0.998891 92:-0.995976 93:-0.999651 94:-1 95:-0.996176 96:-1 97:-0.999307 98:-1 99:-1 100:-1 
-1 -1 -1 -1 -1 -1 -1 -1 -1 -1 -1 -1 -1 -1 -1 -1 -1 -1 -1 -1 -1 -1 -1 -1 -1 -1 -1 -1 1 1 1 1 1 1 1 1 1 1 1 1 1 1 1 1 1 1 1 1 1 2:-0.999827 3:-0.61406 4:-0.782503 5:-0.913043 6:-0.890196 7:-0.356692 8:-1 9:-0.997873 10:-0.893846 11:-0.941176 12:-1 13:-0.896604 14:-0.692308 15:-0.755892 16:0.11879 17:-0.997619 18:-0.486964 19:-0.619921 20:1 21:-0.45111 22:-0.803071 23:-0.767261 24:0.357549 25:0.498982 26:-0.656805 27:-0.692964 28:-0.625 29:-0.886979 30:-0.997811 31:0.101965 32:1 33:0.922693 34:0.200612 35:-0.392 36:-0.985137 37:-1 38:-1 39:-0.999685 40:-0.998201 41:-1 42:-0.998767 43:-0.699736 44:-0.862069 45:-0.809264 46:-0.862653 47:-0.977951 48:-1 49:-1 50:-0.596838 51:0.529824 53:-0.946201 54:-0.954761 55:-0.962617 56:-0.966545 57:-0.993902 58:-1 59:-0.567775 60:-0.763386 61:-0.9 62:-1 63:-0.861816 64:-1 65:-0.957873 66:-0.844757 67:-0.388535 68:-0.926254 69:-0.979657 70:-1 71:-0.793278 72:-0.82904 73:-0.661765 74:-0.888023 75:-0.695871 76:-0.929412 77:-0.973849 78:-1 79:-0.922503 80:-0.911509 81:-0.591757 82:-1 83:-0.936594 84:-0.38986 85:-0.372263 86:-0.934386 87:-0.950739 88:-0.936842 89:-0.995312 90:-0.794364 91:-0.779257 92:-0.859155 93:-0.614632 94:-0.985294 95:-0.751434 96:-0.959977 97:-0.649519 98:-1 99:-1 100:-0.907591 
-1 -1 -1 -1 -1 -1 -1 -1 -1 -1 -1 -1 -1 -1 -1 -1 -1 -1 -1 -1 -1 -1 -1 -1 -1 -1 -1 -1 -1 1 1 1 1 1 1 1 1 1 1 1 1 1 1 1 1 1 1 1 1 2:-0.995883 3:-0.628237 4:-0.944107 5:-0.797101 6:-0.83268 7:-0.557725 8:1 9:-0.96998 10:-0.902945 11:-1 12:-1 13:-0.694881 14:-0.692308 15:-0.828283 16:-0.701944 17:-1 18:-0.76619 19:-0.871778 20:-1 21:-0.6308 22:-0.866305 23:-0.987194 24:-0.933039 25:-0.96945 26:-0.846154 27:-0.89339 28:-1 29:-0.913194 30:-0.998084 31:-0.964912 32:-1 33:-0.852868 34:-0.953234 35:-0.872 36:-0.958198 37:-1 38:-1 39:-0.882025 40:-0.9994 41:-0.953942 42:-1 43:-0.875301 44:-0.931034 45:-0.874659 46:-0.877545 47:-0.809222 48:-0.886839 49:-1 50:-0.533597 51:-0.996792 53:-0.953108 54:-1 55:-1 56:-0.998545 57:-0.998924 58:-1 59:-0.996937 60:-0.998989 61:-1 62:-1 63:-0.988318 64:-1 65:-0.996547 66:-0.996244 67:-1 68:-0.999263 69:1 70:-1 71:-0.997694 72:-0.995316 73:-0.999423 74:-0.998076 75:-1 76:-0.929412 77:-0.997908 78:-1 79:-0.99593 80:-0.994706 81:-0.749509 82:-1 83:-0.992754 84:-0.996941 85:-0.985401 86:-0.984204 87:-0.990148 88:-1 89:-0.997509 90:-0.955065 91:-1 92:-0.95171 93:-0.970025 94:-1 95:-0.984704 96:-0.999747 97:-0.993369 98:-0.998911 99:-1 100:-1 
-1 -1 -1 -1 -1 -1 -1 -1 -1 -1 -1 -1 -1 -1 -1 -1 -1 -1 -1 -1 -1 -1 -1 -1 -1 -1 -1 -1 -1 -1 1 1 1 1 1 1 1 1 1 1 1 1 1 1 1 1 1 1 1 2:-0.999003 3:-0.720527 4:-0.763062 5:-0.623188 6:-0.890196 7:-0.79552 8:-1 9:-0.926013 10:-0.497167 11:-0.882353 12:-1 13:-0.955651 14:-0.538462 15:-0.621212 16:-0.863931 17:-1 18:-0.660219 19:-0.645235 20:-1 21:-0.688742 22:-0.0424571 23:-0.994432 24:-0.777637 25:-0.99389 26:-0.976331 27:-0.963042 28:-0.625 29:-0.588475 30:-0.90686 31:-0.860704 32:-1 33:-0.665835 34:-0.89292 35:-0.936 36:-0.863446 37:-1 38:-1 39:-0.763525 40:-0.9998 41:-0.991143 42:-0.998767 43:-0.531978 44:-0.834483 45:-0.809264 46:-0.877861 47:-0.943075 48:-0.852399 49:-1 50:-0.509881 51:1 53:-0.982915 54:-0.998176 55:-0.962617 56:-0.992727 57:-0.990674 58:-1 59:-0.652627 60:-0.980052 61:-0.966667 62:-1 63:-0.932243 64:-1 65:-0.994475 66:-0.94867 67:-0.910828 68:-0.967552 69:-0.995439 70:-1 71:-0.951193 72:-0.961358 73:-0.964245 74:-0.951515 75:-0.953676 76:-0.988235 77:-0.98431 78:-1 79:-0.291674 80:-0.966469 81:-0.870461 82:-1 83:-0.938406 84:-0.867133 85:-0.985401 86:-0.9113 87:-0.793103 88:-0.0526316 89:-0.951945 90:-0.494288 91:-0.995563 92:-0.440644 93:-0.587568 94:-1 95:-0.778203 96:-0.988763 97:-0.671448 98:-0.998911 99:-1 100:-0.993399 
-1 -1 -1 -1 -1 -1 -1 -1 -1 -1 -1 -1 -1 -1 -1 -1 -1 -1 -1 -1 -1 -1 -1 -1 -1 -1 -1 -1 -1 -1 -1 1 1 1 1 1 1 1 1 1 1 1 1 1 1 1 1 1 1 2:-1 3:-1 4:-1 5:-1 6:-1 7:-1 8:-1 9:-1 10:-0.999681 11:-1 12:-1 13:-1 14:-1 15:-1 16:-1 17:-0.997619 18:-1 19:-1 20:-1 21:-1 22:-0.996387 23:-1 24:-1 25:-1 26:-1 27:-1 28:-1 29:-1 30:-1 31:-1 32:-0.333333 33:-1 34:-1 35:-1 36:-1 37:-1 38:-1 39:-0.999895 40:-1 41:-1 42:-1 43:-1 44:-1 45:-1 46:-1 47:-0.999903 48:-1 49:-1 50:-1 51:-1 53:-1 54:-1 55:-1 56:-1 57:-1 58:-1 59:-1 60:-1 61:-1 62:-1 63:-1 64:-1 65:-1 66:-1 67:-1 68:-1 69:-1 70:-1 71:-0.999968 72:-1 73:-1 74:-1 75:-1 76:-1 77:-1 78:-1 79:-0.999491 80:-1 81:-1 82:-0.333333 83:-1 84:-1 85:-1 86:-1 87:-1 88:-1 89:-1 90:-1 91:-1 92:-1 93:-0.999825 94:-1 95:-1 96:-1 97:-0.999913 98:-1 99:-1 100:-1 
-1 -1 -1 -1 -1 -1 -1 -1 -1 -1 -1 -1 -1 -1 -1 -1 -1 -1 -1 -1 -1 -1 -1 -1 -1 -1 -1 -1 -1 -1 -1 -1 1 1 1 1 1 1 1 1 1 1 1 1 1 1 1 1 1 2:-0.99948 3:-0.979459 4:-0.989064 5:-1 6:-0.986928 7:-0.964388 8:-1 9:-0.991963 10:-0.964562 11:-0.941176 12:-0.818182 13:-0.994678 14:-1 15:-0.964646 16:-0.980562 17:-1 18:-0.956266 19:-0.972118 20:-1 21:-0.94862 22:-0.974706 23:-0.999722 24:-0.993051 25:-1 26:-0.988166 27:-0.991471 28:-0.5 29:-0.991344 30:-0.999635 31:-0.99103 32:-1 33:-0.955112 34:-0.998252 35:-0.968 36:-0.985137 37:-1 38:-1 39:-0.954471 40:-1 41:-1 42:-1 43:-0.956826 44:-0.958621 45:-0.989101 46:-0.978139 47:-0.97938 48:-0.9877 49:-1 50:-0.913043 51:-0.948374 53:-0.99691 54:-1 55:-1 56:-1 57:-0.993544 58:-1 59:-0.955583 60:-0.999461 61:-1 62:-1 63:-0.993658 64:-1 65:-0.998619 66:-0.972457 67:-0.936306 68:-0.9941 69:-0.997811 70:-1 71:-0.986329 72:-0.998829 73:-0.986736 74:-0.954786 75:-0.993958 76:-0.988235 77:-0.992678 78:-1 79:-0.869256 80:-0.985125 81:-0.967125 82:-1 83:-0.967391 84:-0.982955 85:-1 86:-0.981774 87:-0.970443 88:-1 89:-0.983371 90:-0.938309 91:-1 92:-0.939638 93:-0.953321 94:-1 95:-0.984704 96:-0.993561 97:-0.980107 98:-1 99:-1 100:-0.973597 
-1 -1 -1 -1 -1 -1 -1 -1 -1 -1 -1 -1 -1 -1 -1 -1 -1 -1 -1 -1 -1 -1 -1 -1 -1 -1 -1 -1 -1 -1 -1 -1 -1 1 1 1 1 1 1 1 1 1 1 1 1 1 1 1 1 2:-0.9961 3:-0.94127 4:-0.882139 5:-0.913043 6:-0.992157 7:-0.962091 8:-1 9:-0.975417 10:-0.852023 11:-1 12:-1 13:-0.746072 14:-1 15:-0.956229 16:-0.890929 17:-1 18:-0.91926 19:-0.913051 20:-1 21:-0.863359 22:-0.559169 23:-0.979399 24:-0.895136 25:-0.967413 26:-0.940828 27:-0.964463 28:-1 29:-0.654755 30:-0.999361 31:-0.919799 32:-1 33:-0.902743 34:1 35:1 36:-0.921969 37:-1 38:-1 39:-0.892119 40:-1 41:-1 42:-1 43:-0.84206 44:-0.958621 45:-0.929155 46:-0.965307 47:-0.891476 48:-0.97786 49:-1 50:-0.928854 51:0.0243547 53:-0.991821 54:-0.999635 55:-1 56:-1 57:-0.997489 58:-1 59:-0.910553 60:-0.995013 61:-0.833333 62:-1 63:-0.99466 64:-1 65:-0.997928 66:-0.956808 67:-0.923567 68:-0.990413 69:-0.993706 70:-1 71:-0.955285 72:-0.90281 73:-0.821799 74:-0.697932 75:-0.899295 76:-1 77:-0.990586 78:-1 79:-0.53417 80:-0.973024 81:-0.939892 82:-1 83:-0.992754 84:1 85:-0.766423 86:-0.990279 87:-1 88:-0.915789 89:-0.972236 90:-0.842346 91:-1 92:-0.927565 93:-0.892847 94:-1 95:-0.785851 96:-0.994697 97:-0.888706 98:-1 99:-1 100:-0.980198 
-1 -1 -1 -1 -1 -1 -1 -1 -1 -1 -1 -1 -1 -1 -1 -1 -1 -1 -1 -1 -1 -1 -1 -1 -1 -1 -1 -1 -1 -1 -1 -1 -1 -1 1 1 1 1 1 1 1 1 1 1 1 1 1 1 1 2:-0.999697 3:-0.999421 4:-0.99757 5:-1 6:-1 7:-1 8:-1 9:-0.999527 10:-0.992497 11:-1 12:-1 13:-0.998733 14:-1 15:-0.998316 16:-0.99892 17:-1 18:-0.99159 19:-0.998716 20:-1 21:-0.998743 22:-0.990967 23:-0.999443 24:-0.999368 25:-1 26:-1 27:-0.998579 28:-1 29:-0.989366 30:-0.999909 31:-0.999736 32:-1 33:-1 34:-0.993007 35:-0.456 36:-0.994426 37:-1 38:-1 39:-0.997792 40:-1 41:-1 42:-1 43:-0.994374 44:-1 45:-0.961853 46:-0.999525 47:-0.995551 48:-0.99508 49:-1 50:-0.992095 51:-0.992125 53:-0.999273 54:-0.999635 55:-1 56:-0.998545 57:-1 58:-1 59:-0.997856 60:-0.99973 61:-1 62:-1 63:-1 64:-1 65:-0.999309 66:-0.997496 67:-1 68:-1 69:-0.998814 70:-1 71:-0.999221 72:-0.997658 73:-0.999712 74:-0.998846 75:-1 76:-1 77:-1 78:-1 79:-0.993556 80:-0.997983 81:-0.999019 82:-1 83:-0.996377 84:-0.945367 85:-0.50365 86:-0.963548 87:-1 88:-1 89:-0.999414 90:-0.997715 91:-1 92:-0.987928 93:-0.996915 94:-1 95:-0.984704 96:-0.999747 97:-0.99675 98:-0.998911 99:-1 100:-0.993399 
-1 -1 -1 -1 -1 -1 -1 -1 -1 -1 -1 -1 -1 -1 -1 -1 -1 -1 -1 -1 -1 -1 -1 -1 -1 -1 -1 -1 -1 -1 -1 -1 -1 -1 -1 1 1 1 1 1 1 1 1 1 1 1 1 1 1 2:-0.99974 3:-0.938956 4:-0.990279 5:-0.768116 6:-0.942484 7:-0.93452 8:-1 9:-0.998345 10:-0.980366 11:-0.941176 12:-1 13:-0.998479 14:-0.846154 15:-0.981481 16:-0.983801 17:-1 18:-0.971405 19:-0.92901 20:-1 21:-0.923396 22:-0.232159 23:-1 24:-0.991788 25:-0.995927 26:-1 27:-0.997157 28:-1 29:-0.986645 30:-0.998814 31:-0.980741 32:-1 33:-0.962594 34:-0.996503 35:-0.52 36:-0.992569 37:-1 38:-1 39:-0.990852 40:-1 41:-0.980514 42:-1 43:-0.93811 44:-1 45:-0.86376 46:-0.976396 47:-0.978698 48:-1 49:1 50:-0.960474 51:-0.997083 53:-0.972374 54:-1 55:-1 56:-0.973818 57:-0.995696 58:-1 59:-0.994486 60:-0.997978 61:-1 62:-1 63:-0.977971 64:-1 65:-0.977901 66:-0.936776 67:-0.980892 68:-0.955015 69:-0.999179 70:-1 71:-0.930086 72:-0.959016 73:-0.876298 74:-0.933045 75:-0.961732 76:-0.952941 77:-0.964435 78:-1 79:-0.997287 80:-0.988655 81:-0.963935 82:-1 83:-0.971014 84:-0.963287 85:-0.912409 86:-0.990279 87:-0.980296 88:-1 89:-0.999341 90:-0.997715 91:-1 92:-0.995976 93:-0.963623 94:-1 95:-0.961759 96:-0.956568 97:-0.985395 98:-1 99:-1 100:-0.953795 
-1 -1 -1 -1 -1 -1 -1 -1 -1 -1 -1 -1 -1 -1 -1 -1 -1 -1 -1 -1 -1 -1 -1 -1 -1 -1 -1 -1 -1 -1 -1 -1 -1 -1 -1 -1 1 1 1 1 1 1 1 1 1 1 1 1 1 2:-1 3:-0.957761 4:-1 5:-1 6:-0.994771 7:-0.998851 8:-1 9:-0.999764 10:-0.967595 11:-1 12:-1 13:-0.999747 14:-1 15:-0.900673 16:-1 17:-1 18:-0.981497 19:-0.998166 20:-1 21:-0.998743 22:-1 23:-0.999722 24:-0.999368 25:-1 26:-1 27:-0.997157 28:-0.625 29:-0.998763 30:-0.999909 31:-0.99446 32:-1 33:-0.992519 34:-1 35:-1 36:-0.998142 37:-1 38:-1 39:-1 40:-0.9996 41:-1 42:-0.998767 43:-0.9938 44:-1 45:-0.99455 46:-0.999683 47:-0.999903 48:-0.99016 49:-1 50:-0.6917 51:-1 53:-0.986369 54:-1 55:-1 56:-1 57:-0.999641 58:-1 59:-1 60:-0.999933 61:-1 62:-1 63:-1 64:-1 65:-0.999309 66:-1 67:-1 68:-0.999263 69:-1 70:-1 71:-1 72:-1 73:-0.999712 74:-1 75:-1 76:-1 77:-1 78:-1 79:-1 80:-1 81:-1 82:-1 83:-1 84:-1 85:-1 86:-1 87:-1 88:-1 89:-1 90:-1 91:-1 92:-1 93:-0.966475 94:-1 95:-0.996176 96:-1 97:-0.999827 98:-1 99:-1 100:-1 
-1 -1 -1 -1 -1 -1 -1 -1 -1 -1 -1 -1 -1 -1 -1 -1 -1 -1 -1 -1 -1 -1 -1 -1 -1 -1 -1 -1 -1 -1 -1 -1 -1 -1 -1 -1 -1 1 1 1 1 1 1 1 1 1 1 1 1 2:-1 3:-0.991321 4:-0.998785 5:-1 6:-0.994771 7:-0.995405 8:-1 9:-1 10:-0.999361 11:-1 12:-1 13:-0.998733 14:-1 15:-1 16:-0.99568 17:-1 18:-0.998318 19:-0.984225 20:-1 21:-0.995579 22:-0.99458 23:-0.99833 24:-0.99463 25:-1 26:-1 27:-0.994314 28:-1 29:-0.999258 30:-1 31:-0.988128 32:-1 33:-1 34:-0.998252 35:-1 36:-1 37:-1 38:-1 39:-0.995794 40:-1 41:-1 42:-1 43:-0.999139 44:-1 45:-1 46:-0.998416 47:-0.997759 48:-0.99754 49:-1 50:-1 51:-1 53:-0.999273 54:-1 55:-1 56:-1 57:-1 58:-1 59:-1 60:-1 61:-1 62:-1 63:-1 64:-1 65:-1 66:-1 67:-1 68:-0.999263 69:-1 70:-1 71:-0.999968 72:-1 73:-1 74:-1 75:-1 76:-1 77:-1 78:-1 79:-1 80:-1 81:-1 82:-1 83:-1 84:-1 85:-1 86:-1 87:-1 88:-1 89:-1 90:-1 91:-1 92:-1 93:-0.974507 94:-1 95:-0.988528 96:-1 97:-0.999913 98:-1 99:-1 100:-1 
-1 -1 -1 -1 -1 -1 -1 -1 -1 -1 -1 -1 -1 -1 -1 -1 -1 -1 -1 -1 -1 -1 -1 -1 -1 -1 -1 -1 -1 -1 -1 -1 -1 -1 -1 -1 -1 -1 1 1 1 1 1 1 1 1 1 1 1 2:-0.999263 3:0.0820194 4:-0.941677 5:-0.710145 6:1 7:0.315336 8:-1 9:-0.98889 10:-0.900391 11:-0.941176 12:-1 13:-0.956665 14:-0.384615 15:-0.602694 16:-0.470842 17:-1 18:-0.397813 19:-0.451894 20:-1 21:0.270629 22:-0.916893 23:-0.848831 24:-0.617498 25:-0.759674 26:-0.467456 27:-0.673063 28:-0.625 29:-0.984172 30:-0.996898 31:-0.826936 32:-1 33:-0.433915 34:-0.834353 35:-0.872 36:-0.99164 37:-1 38:-1 39:-1 40:-1 41:-1 42:-1 43:-0.927317 44:-0.82069 45:-0.918256 46:0.345109 47:-0.901705 48:-0.945879 49:-1 50:-0.0197628 51:-0.999708 53:0.384224 54:-1 55:-0.719626 56:-0.781818 57:-0.711621 58:-1 59:-0.999387 60:-0.997237 61:-1 62:-1 63:-0.381842 64:-1 65:-0.335635 66:-0.762754 67:-0.44586 68:-0.339233 69:-0.954114 70:-1 71:-0.382335 72:-0.777518 73:-0.812284 74:-0.686003 75:-0.774421 76:-0.729412 77:-0.895397 78:0.176471 79:-0.999491 80:-0.717131 81:-0.448234 82:-0.333333 83:-0.21558 84:-0.551573 85:-0.693431 86:-0.894289 87:-1 88:-0.157895 89:-1 90:-0.985529 91:-1 92:-0.903421 93:-0.383563 94:-0.990196 95:-0.931166 96:-0.716306 97:-0.946087 98:-1 99:-1 100:1 
-1 -1 -1 -1 -1 -1 -1 -1 -1 -1 -1 -1 -1 -1 -1 -1 -1 -1 -1 -1 -1 -1 -1 -1 -1 -1 -1 -1 -1 -1 -1 -1 -1 -1 -1 -1 -1 -1 -1 1 1 1 1 1 1 1 1 1 1 2:-0.999913 3:-0.709822 4:-0.974484 5:-0.855072 6:-0.932026 7:-0.794371 8:-1 9:-0.998109 10:-0.944289 11:-0.882353 12:-1 13:-0.992144 14:-1 15:-0.883838 16:-0.868251 17:-1 18:-0.862069 19:-0.643768 20:-1 21:-0.877787 22:-0.922313 23:-0.958519 24:-0.843967 25:-0.9389 26:-0.893491 27:-0.936034 28:-1 29:-0.933226 30:-0.994618 31:-0.824825 32:-1 33:-0.798005 34:-0.909528 35:-0.952 36:-0.997213 37:-1 38:-1 39:-0.998002 40:-1 41:-1 42:-1 43:-0.954932 44:-0.931034 45:-0.972752 46:-0.921426 47:-0.987985 48:-0.98524 49:-1 50:-0.810277 51:-1 53:-0.969647 54:-1 55:-1 56:-1 57:-1 58:-1 59:-1 60:-0.99973 61:-1 62:-1 63:-0.999332 64:-1 65:-0.997928 66:-0.999374 67:-1 68:-0.997788 69:-0.999909 70:-1 71:-0.999935 72:-1 73:-1 74:-1 75:-1 76:-1 77:-1 78:-1 79:-0.998474 80:-0.999244 81:-0.999755 82:-1 83:-1 84:-1 85:-1 86:-1 87:-0.980296 88:-1 89:-1 90:-1 91:-1 92:-1 93:-0.417612 94:-0.995098 95:-0.950287 96:-1 97:-0.99935 98:-1 99:-1 100:-0.993399 
-1 -1 -1 -1 -1 -1 -1 -1 -1 -1 -1 -1 -1 -1 -1 -1 -1 -1 -1 -1 -1 -1 -1 -1 -1 -1 -1 -1 -1 -1 -1 -1 -1 -1 -1 -1 -1 -1 -1 -1 1 1 1 1 1 1 1 1 1 2:-1 3:-0.994214 4:-0.989064 5:-1 6:-1 7:-1 8:-1 9:-0.999764 10:-0.995371 11:-1 12:-1 13:-1 14:-1 15:-0.983165 16:-1 17:-1 18:-0.986543 19:-0.998899 20:-1 21:-0.999814 22:-1 23:-1 24:-1 25:-1 26:-1 27:-1 28:-0.875 29:-0.950785 30:-1 31:-0.998945 32:-1 33:-1 34:-1 35:-1 36:-1 37:-1 38:-1 39:-1 40:-1 41:-1 42:-1 43:-0.896486 44:-0.986207 45:-0.978202 46:-0.999842 47:-0.999383 48:-1 49:-1 50:-0.98419 51:-1 53:-0.794802 54:-1 55:-0.981308 56:-0.997091 57:-0.999283 58:-1 59:-1 60:-0.986993 61:-1 62:-0.913043 63:-0.999332 64:-1 65:-0.780387 66:-1 67:-1 68:-0.936578 69:-0.99854 70:-1 71:-0.996071 72:-1 73:-1 74:-1 75:-1 76:-1 77:-1 78:-0.176471 79:-1 80:-0.993445 81:-0.998773 82:-1 83:-1 84:-1 85:-1 86:-0.986634 87:-1 88:-1 89:-1 90:-1 91:-1 92:-1 93:-0.993598 94:-1 95:-1 96:-0.999495 97:-0.999827 98:-1 99:-1 100:-0.452145 
-1 -1 -1 -1 -1 -1 -1 -1 -1 -1 -1 -1 -1 -1 -1 -1 -1 -1 -1 -1 -1 -1 -1 -1 -1 -1 -1 -1 -1 -1 -1 -1 -1 -1 -1 -1 -1 -1 -1 -1 -1 1 1 1 1 1 1 1 1 2:-0.999913 3:-0.960075 4:-0.99514 5:-0.942029 6:-0.952941 7:-0.977025 8:-1 9:-0.999527 10:-0.993296 11:-1 12:-1 13:-0.998226 14:-1 15:-0.969697 16:-0.984881 17:-1 18:-0.986543 19:-0.971567 20:-1 21:-0.97687 22:-0.996387 23:-0.991648 24:-0.982312 25:-0.995927 26:-0.988166 27:-0.994314 28:-0.875 29:-0.991344 30:-0.998905 31:-0.963329 32:-1 33:-0.962594 34:-0.992133 35:-0.952 36:-0.999071 37:-1 38:-1 39:-0.997476 40:-1 41:-1 42:-1 43:-0.988805 44:-0.986207 45:-1 46:-0.997465 47:-0.994902 48:-0.99754 49:-1 50:-0.810277 51:-1 53:-0.997455 54:-1 55:-1 56:-1 57:-1 58:-1 59:-1 60:-1 61:-1 62:-1 63:-0.999666 64:-1 65:-0.999309 66:-1 67:-1 68:-0.999263 69:-1 70:-1 71:-0.999903 72:-1 73:-1 74:-1 75:-1 76:-1 77:-1 78:-0.882353 79:-0.99983 80:-1 81:-0.999755 82:-1 83:-1 84:-1 85:-1 86:-1 87:-0.990148 88:-1 89:-1 90:-1 91:-1 92:-1 93:-0.905593 94:-1 95:-0.954111 96:-1 97:-0.99974 98:-1 99:-1 100:-1 
-1 -1 -1 -1 -1 -1 -1 -1 -1 -1 -1 -1 -1 -1 -1 -1 -1 -1 -1 -1 -1 -1 -1 -1 -1 -1 -1 -1 -1 -1 -1 -1 -1 -1 -1 -1 -1 -1 -1 -1 -1 -1 1 1 1 1 1 1 1 2:-0.971353 3:1 4:0.0340219 5:1 6:0.937255 7:1 8:1 9:-0.505496 10:-0.203767 11:0.117647 12:-1 13:-0.380385 14:1 15:0.473064 16:1 17:-0.969048 18:0.814971 19:1 20:1 21:0.5992 22:1 23:-0.638641 24:0.58307 25:-0.248473 26:-0.266272 27:-0.412935 28:-0.25 29:0.637443 30:-0.95302 31:0.86941 32:1 33:1 34:-0.195367 35:-0.152 36:-0.419415 37:1 38:1 39:0.113611 40:1 41:-0.805137 42:1 43:0.749455 44:0.503448 45:-0.0027248 46:-0.25101 47:-0.0459815 48:1 49:-1 50:0.272727 51:0.525448 53:-0.831334 54:1 55:0.0654206 56:-0.621818 57:-0.9566 58:-1 59:0.893399 60:1 61:1 62:-0.913043 63:0.414219 64:-0.923077 65:-0.793508 66:-0.188732 67:1 68:-0.571534 69:-0.822934 70:1 71:0.131223 72:-0.0725995 73:0.109573 74:-0.4405 75:-0.206445 76:-0.776471 77:-0.841004 78:0.647059 79:-0.113108 80:-0.452414 81:1 82:-1 83:0.362319 84:0.20236 85:0.430657 86:0.309842 87:0.0640394 88:-0.684211 89:-0.90726 90:-0.402133 91:1 92:-0.215292 93:0.773587 94:1 95:-0.181644 96:-0.661259 97:0.153809 98:-0.995645 99:-1 100:0.181518 
-1 -1 -1 -1 -1 -1 -1 -1 -1 -1 -1 -1 -1 -1 -1 -1 -1 -1 -1 -1 -1 -1 -1 -1 -1 -1 -1 -1 -1 -1 -1 -1 -1 -1 -1 -1 -1 -1 -1 -1 -1 -1 -1 1 1 1 1 1 1 2:-1 3:-0.997107 4:-0.981774 5:-1 6:-1 7:-1 8:-1 9:-1 10:-0.99553 11:-1 12:-1 13:-0.999747 14:-1 15:-1 16:-1 17:-1 18:-0.998318 19:-1 20:-1 21:-0.999814 22:-1 23:-1 24:-1 25:-1 26:-1 27:-1 28:-1 29:-0.999258 30:-1 31:-1 32:-1 33:-1 34:-1 35:-1 36:-1 37:-1 38:-1 39:-0.99979 40:-0.9998 41:-1 42:-1 43:-0.976576 44:-0.972414 45:-1 46:-0.999683 47:-0.99948 48:-1 49:-1 50:-1 51:-0.998833 53:-0.999455 54:-0.998176 55:-1 56:-1 57:-1 58:-1 59:-0.996324 60:-0.997776 61:-1 62:-1 63:-0.995995 64:-1 65:-1 66:-0.99374 67:-0.993631 68:-0.99705 69:-1 70:-1 71:-0.995291 72:-0.998829 73:-0.997982 74:-0.998653 75:-1 76:-1 77:-0.998954 78:-1 79:-0.998304 80:-0.998739 81:-0.997056 82:-1 83:-0.994565 84:-0.998689 85:-1 86:-1 87:-1 88:-1 89:-0.999048 90:-0.996192 91:-0.998891 92:-0.995976 93:-0.993656 94:-0.990196 95:-1 96:-0.998359 97:-0.996923 98:-1 99:-1 100:-1 
-1 -1 -1 -1 -1 -1 -1 -1 -1 -1 -1 -1 -1 -1 -1 -1 -1 -1 -1 -1 -1 -1 -1 -1 -1 -1 -1 -1 -1 -1 -1 -1 -1 -1 -1 -1 -1 -1 -1 -1 -1 -1 -1 -1 1 1 1 1 1 2:-0.99974 3:-0.98322 4:-0.998785 5:-0.826087 6:-0.981699 7:-0.983917 8:-1 9:-0.996927 10:-0.99553 11:-1 12:-1 13:-0.997973 14:-1 15:-0.984848 16:-0.961123 17:-0.995238 18:-0.993272 19:-0.984225 20:-1 21:-0.979848 22:-0.902439 23:-0.997216 24:-0.979469 25:-0.995927 26:-1 27:-0.995736 28:-0.875 29:-0.983925 30:-0.999635 31:-0.984699 32:-1 33:-0.990025 34:-0.975524 35:-0.936 36:-0.990711 37:-0.996528 38:-0.986301 39:-0.998107 40:-0.997402 41:-1 42:-0.985203 43:-0.987714 44:-1 45:-0.972752 46:-0.996673 47:-0.983017 48:-0.98524 49:-1 50:-0.976285 51:-0.98425 53:-0.998001 54:-0.992339 55:-0.869159 56:-1 57:-0.998924 58:-1 59:-0.986522 60:-0.975806 61:-0.9 62:-1 63:-0.986983 64:-1 65:-0.995166 66:-0.99687 67:-0.993631 68:-0.994838 69:-0.997446 70:-1 71:-0.990778 72:-0.982436 73:-0.894175 74:-0.997306 75:-0.997986 76:-1 77:-0.996862 78:-1 79:-0.994065 80:-0.994201 81:-0.991413 82:-1 83:-0.996377 84:-0.994318 85:-0.89781 86:-0.969623 87:-0.990148 88:-1 89:-0.998901 90:-0.996192 91:-0.995563 92:-1 93:-0.989349 94:-1 95:-0.98088 96:-0.99899 97:-0.990162 98:-0.998911 99:-1 100:-0.973597 
-1 -1 -1 -1 -1 -1 -1 -1 -1 -1 -1 -1 -1 -1 -1 -1 -1 -1 -1 -1 -1 -1 -1 -1 -1 -1 -1 -1 -1 -1 -1 -1 -1 -1 -1 -1 -1 -1 -1 -1 -1 -1 -1 -1 -1 1 1 1 1 2:-0.988645 3:-0.917257 4:-0.868773 5:-1 6:-0.85098 7:-0.846065 8:-1 9:-0.492495 10:-0.81483 11:-1 12:-1 13:-0.718702 14:-1 15:-0.902357 16:-0.956803 17:-0.997619 18:-0.880572 19:-0.968816 20:-1 21:-0.262764 22:-0.803071 23:-0.997494 24:-0.987997 25:-1 26:-0.964497 27:-0.991471 28:-1 29:-0.921603 30:-0.999818 31:-0.97652 32:-1 33:-0.872818 34:-0.981643 35:-0.968 36:-0.680446 37:-1 38:-1 39:-0.763735 40:-1 41:-0.992914 42:-1 43:-0.845964 44:-0.82069 45:-0.956403 46:-0.467089 47:-0.616626 48:-0.938499 49:-1 50:-0.936759 51:-0.871664 53:-0.588513 54:-0.99927 55:-0.981308 56:-0.681455 57:-0.712697 58:1 59:-0.448614 60:-0.997709 61:-1 62:-1 63:-0.943258 64:-0.615385 65:-0.994475 66:-0.678247 67:-0.987261 68:-0.870944 69:-0.966338 70:-1 71:-0.590031 72:-0.954333 73:-0.989043 74:-0.89418 75:-0.846928 76:-0.811765 77:-0.920502 78:-0.882353 79:-0.852976 80:-0.805118 81:-0.810844 82:-1 83:-0.75 84:-0.904283 85:-0.956204 86:-0.818955 87:-0.980296 88:-0.789474 89:-0.377994 90:-0.622239 91:-0.998891 92:-0.935614 93:-0.724812 94:-0.990196 95:-0.919694 96:-0.575279 97:-0.899064 98:-1 99:-1 100:-0.940594 
-1 -1 -1 -1 -1 -1 -1 -1 -1 -1 -1 -1 -1 -1 -1 -1 -1 -1 -1 -1 -1 -1 -1 -1 -1 -1 -1 -1 -1 -1 -1 -1 -1 -1 -1 -1 -1 -1 -1 -1 -1 -1 -1 -1 -1 -1 1 1 1 2:1 3:-0.191089 4:1 5:0.42029 6:-0.759477 7:0.511775 8:1 9:0.574282 10:0.623913 11:0.647059 12:1 13:-0.778256 14:-0.230769 15:1 16:0.928726 17:-0.883333 18:1 19:-0.201137 20:1 21:0.0226649 22:-0.461608 23:1 24:1 25:1 26:1 27:1 28:1 29:1 30:-0.986043 31:1 32:0.333333 33:0.144638 34:0.122378 35:0.2 36:-0.686948 37:-0.986111 38:-0.990868 39:-0.869197 40:-0.997002 41:-0.992914 42:-0.992602 43:0.528476 44:-0.0206897 45:0.237057 46:-0.63105 47:-0.796071 48:-0.896679 49:-1 50:0.636364 51:0.472072 53:0.177935 54:-0.987596 55:1 56:1 57:-0.791607 58:1 59:-0.508654 60:-0.965158 61:-0.966667 62:1 63:1 64:-1 65:1 66:-0.240689 67:-0.229299 68:1 69:-0.722678 70:-1 71:1 72:1 73:1 74:-0.47975 75:-0.331319 76:0.776471 77:0.08159 78:1 79:-0.884857 80:0.481155 81:-0.569921 82:1 83:0.150362 84:0.460664 85:1 86:-0.202916 87:-0.970443 88:0.452632 89:-0.778258 90:-0.718203 91:-0.978924 92:-0.368209 93:0.70997 94:-0.921569 95:1 96:0.490562 97:-0.727832 98:1 99:1 100:0.729373 
-1 -1 -1 -1 -1 -1 -1 -1 -1 -1 -1 -1 -1 -1 -1 -1 -1 -1 -1 -1 -1 -1 -1 -1 -1 -1 -1 -1 -1 -1 -1 -1 -1 -1 -1 -1 -1 -1 -1 -1 -1 -1 -1 -1 -1 -1 -1 1 1 2:-0.998873 3:-1 4:-1 5:-1 6:-1 7:-1 8:-1 9:-1 10:-0.999681 11:-1 12:-1 13:-0.999747 14:-1 15:-1 16:-1 17:-1 18:-1 19:-1 20:-1 21:-0.99986 22:-1 23:-1 24:-1 25:-1 26:-1 27:-1 28:-1 29:-1 30:-0.999909 31:-0.999736 32:-1 33:-1 34:-1 35:-0.984 36:-1 37:-1 38:-1 39:-1 40:-1 41:-1 42:-1 43:-0.99977 44:-1 45:-0.99455 46:-1 47:-0.940347 48:-0.9631 49:-1 50:-1 51:-0.999417 53:-0.935115 54:-1 55:-0.943925 56:-0.989818 57:-0.998207 58:-1 59:-1 60:-0.999461 61:-1 62:-1 63:-0.992991 64:-1 65:-0.978591 66:-0.999374 67:-0.987261 68:-0.983038 69:-0.998905 70:-1 71:-0.989349 72:-0.983607 73:-0.997405 74:-0.998268 75:-1 76:-1 77:-1 78:-1 79:-1 80:-0.988403 81:-0.98528 82:-1 83:-0.990942 84:-0.996066 85:-0.970803 86:-1 87:-0.960591 88:-0.978947 89:-0.998388 90:-0.99543 91:-1 92:-0.995976 93:-0.95268 94:-1 95:-0.977055 96:-0.996844 97:-0.99818 98:-0.983669 99:-1 100:-0.980198 
-1 -1 -1 -1 -1 -1 -1 -1 -1 -1 -1 -1 -1 -1 -1 -1 -1 -1 -1 -1 -1 -1 -1 -1 -1 -1 -1 -1 -1 -1 -1 -1 -1 -1 -1 -1 -1 -1 -1 -1 -1 -1 -1 -1 -1 -1 -1 -1 1 2:-1 3:-1 4:-1 5:-1 6:-1 7:-1 8:-1 9:-1 10:-1 11:-1 12:-1 13:-1 14:-1 15:-1 16:-1 17:-1 18:-1 19:-1 20:-1 21:-1 22:-1 23:-1 24:-1 25:-1 26:-1 27:-1 28:-1 29:-1 30:-1 31:-1 32:-1 33:-1 34:-1 35:-1 36:-1 37:-1 38:-1 39:-1 40:-1 41:-1 42:-1 43:-1 44:-1 45:-1 46:-1 47:-0.999968 48:-1 49:-1 50:-1 51:-1 53:-1 54:-1 55:-1 56:-1 57:-1 58:-1 59:-1 60:-1 61:-1 62:-1 63:-1 64:-1 65:-1 66:-1 67:-1 68:-1 69:-1 70:-1 71:-1 72:-1 73:-1 74:-1 75:-1 76:-1 77:-1 78:-1 79:-1 80:-1 81:-1 82:-1 83:-1 84:-1 85:-1 86:-0.998785 87:-1 88:-1 89:-1 90:-1 91:-1 92:-1 93:-1 94:-1 95:-1 96:-1 97:-1 98:-1 99:-1 100:-1 
-1 -1 -1 -1 -1 -1 -1 -1 -1 -1 -1 -1 -1 -1 -1 -1 -1 -1 -1 -1 -1 -1 -1 -1 -1 -1 -1 -1 -1 -1 -1 -1 -1 -1 -1 -1 -1 -1 -1 -1 -1 -1 -1 -1 -1 -1 -1 -1 -1 2:-0.99948 3:-0.989874 4:-1 5:-0.971014 6:-0.989542 7:-0.997702 8:-1 9:-0.996218 10:-0.998404 11:-1 12:-1 13:-0.998733 14:-1 15:-0.998316 16:-1 17:-1 18:-0.996636 19:-0.992479 20:-1 21:-0.986085 22:-0.996387 23:-0.999722 24:-0.998737 25:-1 26:-1 27:-1 28:-1 29:-0.996538 30:-1 31:-0.999736 32:-1 33:-0.990025 34:-0.998689 35:-0.984 36:-0.993497 37:-1 38:-1 39:-0.96814 40:-0.9998 41:-0.852967 42:-1 43:-0.989723 44:-1 45:-0.978202 46:-0.998574 47:-0.991492 48:-0.99262 49:-1 50:-0.952569 51:-0.983083 53:-0.994002 54:-1 55:-1 56:-1 57:-0.998924 58:-1 59:-0.991423 60:-0.995822 61:-1 62:-1 63:-0.993658 64:-1 65:-0.997928 66:-0.998748 67:-0.993631 68:-1 69:-0.997354 70:-1 71:-0.991784 72:-0.994145 73:-0.995963 74:-0.998653 75:-1 76:-1 77:-0.997908 78:-1 79:-0.991352 80:-0.985125 81:-0.984789 82:-1 83:-0.980072 84:-0.996066 85:-0.985401 86:-0.993925 87:-0.615764 88:-1 89:-0.990916 90:-0.981721 91:-0.997781 92:-0.903421 93:-0.990629 94:-1 95:-0.988528 96:-0.99899 97:-0.991029 98:-1 99:-1 100:-0.960396 
